//Numpy array shape [1, 1, 3, 32]
//Min -1.906250000000
//Max 2.406250000000
//Number of zeros 4

#ifndef W2_H_
#define W2_H_

#ifndef __SYNTHESIS__
weight2_t w2[96];
#else
weight2_t w2[96] = {-1.25000, -4.00000, 2.46875, -1.56250, 3.96875, 0.34375, 2.71875, 0.96875, -4.00000, -0.25000, -2.90625, -1.50000, -2.03125, 0.75000, -2.40625, -4.00000, -1.12500, 3.96875, 3.96875, -4.00000, -4.00000, -0.15625, 3.96875, 0.71875, -2.25000, 2.59375, 3.96875, -4.00000, -3.40625, 3.96875, -4.00000, 3.96875, 3.03125, 3.96875, -4.00000, 0.68750, -1.90625, -3.84375, 1.06250, -4.00000, 1.81250, 1.03125, 3.96875, -4.00000, -3.03125, -4.00000, 3.96875, -4.00000, -1.96875, -3.09375, 1.93750, -3.18750, -0.62500, 1.15625, 3.59375, -4.00000, -3.25000, -2.56250, -4.00000, 3.96875, 3.96875, 3.43750, -2.68750, -4.00000, 0.87500, 3.96875, -1.87500, 3.96875, -4.00000, -0.03125, 3.96875, -4.00000, 3.96875, 0.59375, -0.34375, 0.96875, -2.12500, 3.96875, 3.96875, -4.00000, -1.12500, 0.65625, -4.00000, 0.06250, -1.56250, -1.28125, 3.96875, 3.40625, -4.00000, 3.96875, -4.00000, 3.96875, 0.00000, -4.00000, 0.18750, 3.96875};
#endif

#endif
